digraph Tree {
0 [label="X[1] <= 14.0000\ngini = 0.207221172023\nsamples = 460", shape="box"] ;
1 [label="X[4] <= 1200.0000\ngini = 0.491493383743\nsamples = 92", shape="box"] ;
0 -> 1 ;
2 [label="gini = 0.3856\nsamples = 46\nvalue = [ 12.  34.]", shape="box"] ;
1 -> 2 ;
3 [label="gini = 0.2268\nsamples = 46\nvalue = [ 40.   6.]", shape="box"] ;
1 -> 3 ;
4 [label="X[8] <= 2175156.5000\ngini = 0.0731923440454\nsamples = 368", shape="box"] ;
0 -> 4 ;
5 [label="gini = 0.1948\nsamples = 128\nvalue = [ 114.   14.]", shape="box"] ;
4 -> 5 ;
6 [label="gini = 0.0000\nsamples = 240\nvalue = [ 240.    0.]", shape="box"] ;
4 -> 6 ;
}