digraph Tree {
0 [label="X[6] <= 1008.0000\ngini = 0.255\nsamples = 20", shape="box"] ;
1 [label="X[0] <= 56.0000\ngini = 0.444444444444\nsamples = 3", shape="box"] ;
0 -> 1 ;
2 [label="gini = 0.0000\nsamples = 1\nvalue = [ 1.  0.]", shape="box"] ;
1 -> 2 ;
3 [label="gini = 0.0000\nsamples = 2\nvalue = [ 0.  2.]", shape="box"] ;
1 -> 3 ;
4 [label="X[2] <= 14.0000\ngini = 0.110726643599\nsamples = 17", shape="box"] ;
0 -> 4 ;
5 [label="X[4] <= 1200.0000\ngini = 0.32\nsamples = 5", shape="box"] ;
4 -> 5 ;
6 [label="gini = 0.5000\nsamples = 2\nvalue = [ 1.  1.]", shape="box"] ;
5 -> 6 ;
7 [label="gini = 0.0000\nsamples = 3\nvalue = [ 3.  0.]", shape="box"] ;
5 -> 7 ;
8 [label="gini = 0.0000\nsamples = 12\nvalue = [ 12.   0.]", shape="box"] ;
4 -> 8 ;
}