digraph Tree {
0 [label="X[0] <= 40.0000\ngini = 0.449170342365\nsamples = 276", shape="box"] ;
1 [label="X[10] <= 706.0000\ngini = 0.0425330812854\nsamples = 92", shape="box"] ;
0 -> 1 ;
2 [label="X[11] <= 2.2514\ngini = 0.5\nsamples = 2", shape="box"] ;
1 -> 2 ;
3 [label="gini = 0.0000\nsamples = 1\nvalue = [ 0.  1.]", shape="box"] ;
2 -> 3 ;
4 [label="gini = 0.0000\nsamples = 1\nvalue = [ 1.  0.]", shape="box"] ;
2 -> 4 ;
5 [label="X[7] <= 620.5000\ngini = 0.021975308642\nsamples = 90", shape="box"] ;
1 -> 5 ;
6 [label="X[11] <= 2.2514\ngini = 0.277777777778\nsamples = 6", shape="box"] ;
5 -> 6 ;
7 [label="gini = 0.0000\nsamples = 1\nvalue = [ 0.  1.]", shape="box"] ;
6 -> 7 ;
8 [label="gini = 0.0000\nsamples = 5\nvalue = [ 5.  0.]", shape="box"] ;
6 -> 8 ;
9 [label="gini = 0.0000\nsamples = 84\nvalue = [ 84.   0.]", shape="box"] ;
5 -> 9 ;
10 [label="X[10] <= 34679.0000\ngini = 0.0425330812854\nsamples = 184", shape="box"] ;
0 -> 10 ;
11 [label="X[8] <= 13362050.0000\ngini = 0.0115603028664\nsamples = 172", shape="box"] ;
10 -> 11 ;
12 [label="gini = 0.0000\nsamples = 168\nvalue = [   0.  168.]", shape="box"] ;
11 -> 12 ;
13 [label="X[0] <= 96.0000\ngini = 0.375\nsamples = 4", shape="box"] ;
11 -> 13 ;
14 [label="X[9] <= 12903.5000\ngini = 0.5\nsamples = 2", shape="box"] ;
13 -> 14 ;
15 [label="gini = 0.0000\nsamples = 1\nvalue = [ 1.  0.]", shape="box"] ;
14 -> 15 ;
16 [label="gini = 0.0000\nsamples = 1\nvalue = [ 0.  1.]", shape="box"] ;
14 -> 16 ;
17 [label="gini = 0.0000\nsamples = 2\nvalue = [ 0.  2.]", shape="box"] ;
13 -> 17 ;
18 [label="X[9] <= 10206.5000\ngini = 0.375\nsamples = 12", shape="box"] ;
10 -> 18 ;
19 [label="X[0] <= 96.0000\ngini = 0.5\nsamples = 6", shape="box"] ;
18 -> 19 ;
20 [label="gini = 0.0000\nsamples = 3\nvalue = [ 3.  0.]", shape="box"] ;
19 -> 20 ;
21 [label="gini = 0.0000\nsamples = 3\nvalue = [ 0.  3.]", shape="box"] ;
19 -> 21 ;
22 [label="gini = 0.0000\nsamples = 6\nvalue = [ 0.  6.]", shape="box"] ;
18 -> 22 ;
}