digraph Tree {
0 [label="X[1] <= 14.0000\ngini = 0.292034236505\nsamples = 276", shape="box"] ;
1 [label="X[4] <= 1200.0000\ngini = 0.491493383743\nsamples = 92", shape="box"] ;
0 -> 1 ;
2 [label="X[10] <= 21853.0000\ngini = 0.385633270321\nsamples = 46", shape="box"] ;
1 -> 2 ;
3 [label="X[7] <= 2625.5000\ngini = 0.0570934256055\nsamples = 34", shape="box"] ;
2 -> 3 ;
4 [label="gini = 0.0000\nsamples = 32\nvalue = [  0.  32.]", shape="box"] ;
3 -> 4 ;
5 [label="gini = 0.5000\nsamples = 2\nvalue = [ 1.  1.]", shape="box"] ;
3 -> 5 ;
6 [label="X[13] <= 8138.5000\ngini = 0.152777777778\nsamples = 12", shape="box"] ;
2 -> 6 ;
7 [label="gini = 0.4444\nsamples = 3\nvalue = [ 2.  1.]", shape="box"] ;
6 -> 7 ;
8 [label="gini = 0.0000\nsamples = 9\nvalue = [ 9.  0.]", shape="box"] ;
6 -> 8 ;
9 [label="X[10] <= 1287.5000\ngini = 0.226843100189\nsamples = 46", shape="box"] ;
1 -> 9 ;
10 [label="gini = 0.0000\nsamples = 4\nvalue = [ 0.  4.]", shape="box"] ;
9 -> 10 ;
11 [label="X[10] <= 2302.0000\ngini = 0.0907029478458\nsamples = 42", shape="box"] ;
9 -> 11 ;
12 [label="gini = 0.4800\nsamples = 5\nvalue = [ 3.  2.]", shape="box"] ;
11 -> 12 ;
13 [label="gini = 0.0000\nsamples = 37\nvalue = [ 37.   0.]", shape="box"] ;
11 -> 13 ;
14 [label="X[10] <= 3098.5000\ngini = 0.0930411153119\nsamples = 184", shape="box"] ;
0 -> 14 ;
15 [label="X[11] <= 2.2514\ngini = 0.3046875\nsamples = 48", shape="box"] ;
14 -> 15 ;
16 [label="X[2] <= 40.0000\ngini = 0.5\nsamples = 16", shape="box"] ;
15 -> 16 ;
17 [label="gini = 0.0000\nsamples = 8\nvalue = [ 8.  0.]", shape="box"] ;
16 -> 17 ;
18 [label="gini = 0.0000\nsamples = 8\nvalue = [ 0.  8.]", shape="box"] ;
16 -> 18 ;
19 [label="X[13] <= 823.0000\ngini = 0.060546875\nsamples = 32", shape="box"] ;
15 -> 19 ;
20 [label="gini = 0.0000\nsamples = 28\nvalue = [ 28.   0.]", shape="box"] ;
19 -> 20 ;
21 [label="gini = 0.3750\nsamples = 4\nvalue = [ 3.  1.]", shape="box"] ;
19 -> 21 ;
22 [label="gini = 0.0000\nsamples = 136\nvalue = [ 136.    0.]", shape="box"] ;
14 -> 22 ;
}