digraph Tree {
0 [label="X[0] <= 40.0000\ngini = 0.449170342365\nsamples = 276", shape="box"] ;
1 [label="X[7] <= 620.5000\ngini = 0.0425330812854\nsamples = 92", shape="box"] ;
0 -> 1 ;
2 [label="X[5] <= 399.5000\ngini = 0.375\nsamples = 8", shape="box"] ;
1 -> 2 ;
3 [label="gini = 0.0000\nsamples = 4\nvalue = [ 4.  0.]", shape="box"] ;
2 -> 3 ;
4 [label="X[4] <= 1200.0000\ngini = 0.5\nsamples = 4", shape="box"] ;
2 -> 4 ;
5 [label="gini = 0.0000\nsamples = 2\nvalue = [ 0.  2.]", shape="box"] ;
4 -> 5 ;
6 [label="gini = 0.0000\nsamples = 2\nvalue = [ 2.  0.]", shape="box"] ;
4 -> 6 ;
7 [label="gini = 0.0000\nsamples = 84\nvalue = [ 84.   0.]", shape="box"] ;
1 -> 7 ;
8 [label="X[6] <= 3037.0000\ngini = 0.0425330812854\nsamples = 184", shape="box"] ;
0 -> 8 ;
9 [label="gini = 0.0000\nsamples = 160\nvalue = [   0.  160.]", shape="box"] ;
8 -> 9 ;
10 [label="X[0] <= 96.0000\ngini = 0.277777777778\nsamples = 24", shape="box"] ;
8 -> 10 ;
11 [label="X[4] <= 1200.0000\ngini = 0.444444444444\nsamples = 12", shape="box"] ;
10 -> 11 ;
12 [label="gini = 0.0000\nsamples = 6\nvalue = [ 0.  6.]", shape="box"] ;
11 -> 12 ;
13 [label="gini = 0.4444\nsamples = 6\nvalue = [ 4.  2.]", shape="box"] ;
11 -> 13 ;
14 [label="gini = 0.0000\nsamples = 12\nvalue = [  0.  12.]", shape="box"] ;
10 -> 14 ;
}