digraph Tree {
0 [label="X[0] <= 40.0000\ngini = 0.449170342365\nsamples = 276", shape="box"] ;
1 [label="X[7] <= 620.5000\ngini = 0.0425330812854\nsamples = 92", shape="box"] ;
0 -> 1 ;
2 [label="gini = 0.3750\nsamples = 8\nvalue = [ 6.  2.]", shape="box"] ;
1 -> 2 ;
3 [label="gini = 0.0000\nsamples = 84\nvalue = [ 84.   0.]", shape="box"] ;
1 -> 3 ;
4 [label="X[8] <= 9224738.0000\ngini = 0.0425330812854\nsamples = 184", shape="box"] ;
0 -> 4 ;
5 [label="gini = 0.0000\nsamples = 160\nvalue = [   0.  160.]", shape="box"] ;
4 -> 5 ;
6 [label="gini = 0.2778\nsamples = 24\nvalue = [  4.  20.]", shape="box"] ;
4 -> 6 ;
}